digraph Tree {
node [shape=box, fontname="helvetica"] ;
edge [fontname="helvetica"] ;
0 [label="age_group_65+ years <= 0.5\ngini = 0.376\nsamples = 28000\nvalue = [20985, 7015]"] ;
1 [label="hosp_yn_Yes <= 0.5\ngini = 0.086\nsamples = 19362\nvalue = [18492, 870]"] ;
0 -> 1 [labeldistance=2.5, labelangle=45, headlabel="True"] ;
2 [label="state_fips_code_6 <= 0.5\ngini = 0.033\nsamples = 18377\nvalue = [18070, 307]"] ;
1 -> 2 ;
3 [label="state_fips_code_17 <= 0.5\ngini = 0.026\nsamples = 18308\nvalue = [18070, 238]"] ;
2 -> 3 ;
4 [label="death_prob_sex_age_median <= 0.157\ngini = 0.024\nsamples = 18292\nvalue = [18070, 222]"] ;
3 -> 4 ;
5 [label="case_month_2020-01 <= 0.5\ngini = 0.012\nsamples = 16463\nvalue = [16367, 96]"] ;
4 -> 5 ;
6 [label="state_fips_code_29 <= 0.5\ngini = 0.011\nsamples = 16459\nvalue = [16366, 93]"] ;
5 -> 6 ;
7 [label="death_prob_sex_age_median <= 0.056\ngini = 0.011\nsamples = 16456\nvalue = [16365, 91]"] ;
6 -> 7 ;
8 [label="state_fips_code_22 <= 0.5\ngini = 0.005\nsamples = 14415\nvalue = [14380, 35]"] ;
7 -> 8 ;
9 [label="state_fips_code_9 <= 0.5\ngini = 0.005\nsamples = 14414\nvalue = [14380, 34]"] ;
8 -> 9 ;
10 [label="gini = 0.004\nsamples = 14402\nvalue = [14371, 31]"] ;
9 -> 10 ;
11 [label="gini = 0.375\nsamples = 12\nvalue = [9, 3]"] ;
9 -> 11 ;
12 [label="gini = 0.0\nsamples = 1\nvalue = [0, 1]"] ;
8 -> 12 ;
13 [label="state_fips_code_26 <= 0.5\ngini = 0.053\nsamples = 2041\nvalue = [1985, 56]"] ;
7 -> 13 ;
14 [label="state_fips_code_4 <= 0.5\ngini = 0.046\nsamples = 1994\nvalue = [1947, 47]"] ;
13 -> 14 ;
15 [label="gini = 0.04\nsamples = 1945\nvalue = [1905, 40]"] ;
14 -> 15 ;
16 [label="gini = 0.245\nsamples = 49\nvalue = [42, 7]"] ;
14 -> 16 ;
17 [label="hosp_yn_No <= 0.5\ngini = 0.31\nsamples = 47\nvalue = [38, 9]"] ;
13 -> 17 ;
18 [label="gini = 0.0\nsamples = 8\nvalue = [0, 8]"] ;
17 -> 18 ;
19 [label="gini = 0.05\nsamples = 39\nvalue = [38, 1]"] ;
17 -> 19 ;
20 [label="sex_Female <= 0.5\ngini = 0.444\nsamples = 3\nvalue = [1, 2]"] ;
6 -> 20 ;
21 [label="gini = 0.0\nsamples = 1\nvalue = [1, 0]"] ;
20 -> 21 ;
22 [label="gini = 0.0\nsamples = 2\nvalue = [0, 2]"] ;
20 -> 22 ;
23 [label="sex_Female <= 0.5\ngini = 0.375\nsamples = 4\nvalue = [1, 3]"] ;
5 -> 23 ;
24 [label="gini = 0.0\nsamples = 1\nvalue = [1, 0]"] ;
23 -> 24 ;
25 [label="gini = 0.0\nsamples = 3\nvalue = [0, 3]"] ;
23 -> 25 ;
26 [label="ethnicity_Hispanic/Latino <= 0.5\ngini = 0.128\nsamples = 1829\nvalue = [1703, 126]"] ;
4 -> 26 ;
27 [label="state_fips_code_29 <= 0.5\ngini = 0.107\nsamples = 1729\nvalue = [1631, 98]"] ;
26 -> 27 ;
28 [label="death_prob_month <= 0.632\ngini = 0.102\nsamples = 1724\nvalue = [1631, 93]"] ;
27 -> 28 ;
29 [label="case_month_2021-07 <= 0.5\ngini = 0.09\nsamples = 1671\nvalue = [1592, 79]"] ;
28 -> 29 ;
30 [label="state_fips_code_26 <= 0.5\ngini = 0.081\nsamples = 1637\nvalue = [1568, 69]"] ;
29 -> 30 ;
31 [label="gini = 0.071\nsamples = 1597\nvalue = [1538, 59]"] ;
30 -> 31 ;
32 [label="gini = 0.375\nsamples = 40\nvalue = [30, 10]"] ;
30 -> 32 ;
33 [label="state_fips_code_12 <= 0.5\ngini = 0.415\nsamples = 34\nvalue = [24, 10]"] ;
29 -> 33 ;
34 [label="gini = 0.252\nsamples = 27\nvalue = [23, 4]"] ;
33 -> 34 ;
35 [label="gini = 0.245\nsamples = 7\nvalue = [1, 6]"] ;
33 -> 35 ;
36 [label="current_status_Laboratory-confirmed case <= 0.5\ngini = 0.389\nsamples = 53\nvalue = [39, 14]"] ;
28 -> 36 ;
37 [label="hosp_yn_No <= 0.5\ngini = 0.32\nsamples = 5\nvalue = [1, 4]"] ;
36 -> 37 ;
38 [label="gini = 0.0\nsamples = 4\nvalue = [0, 4]"] ;
37 -> 38 ;
39 [label="gini = 0.0\nsamples = 1\nvalue = [1, 0]"] ;
37 -> 39 ;
40 [label="state_fips_code_22 <= 0.5\ngini = 0.33\nsamples = 48\nvalue = [38, 10]"] ;
36 -> 40 ;
41 [label="gini = 0.287\nsamples = 46\nvalue = [38, 8]"] ;
40 -> 41 ;
42 [label="gini = 0.0\nsamples = 2\nvalue = [0, 2]"] ;
40 -> 42 ;
43 [label="gini = 0.0\nsamples = 5\nvalue = [0, 5]"] ;
27 -> 43 ;
44 [label="hosp_yn_No <= 0.5\ngini = 0.403\nsamples = 100\nvalue = [72, 28]"] ;
26 -> 44 ;
45 [label="case_month_2022-01 <= 0.5\ngini = 0.437\nsamples = 31\nvalue = [10, 21]"] ;
44 -> 45 ;
46 [label="case_month_2020-11 <= 0.5\ngini = 0.311\nsamples = 26\nvalue = [5, 21]"] ;
45 -> 46 ;
47 [label="case_month_2020-05 <= 0.5\ngini = 0.269\nsamples = 25\nvalue = [4, 21]"] ;
46 -> 47 ;
48 [label="gini = 0.219\nsamples = 24\nvalue = [3, 21]"] ;
47 -> 48 ;
49 [label="gini = 0.0\nsamples = 1\nvalue = [1, 0]"] ;
47 -> 49 ;
50 [label="gini = 0.0\nsamples = 1\nvalue = [1, 0]"] ;
46 -> 50 ;
51 [label="gini = 0.0\nsamples = 5\nvalue = [5, 0]"] ;
45 -> 51 ;
52 [label="state_fips_code_32 <= 0.5\ngini = 0.182\nsamples = 69\nvalue = [62, 7]"] ;
44 -> 52 ;
53 [label="case_month_2021-08 <= 0.5\ngini = 0.161\nsamples = 68\nvalue = [62, 6]"] ;
52 -> 53 ;
54 [label="case_month_2021-07 <= 0.5\ngini = 0.138\nsamples = 67\nvalue = [62, 5]"] ;
53 -> 54 ;
55 [label="gini = 0.116\nsamples = 65\nvalue = [61, 4]"] ;
54 -> 55 ;
56 [label="gini = 0.5\nsamples = 2\nvalue = [1, 1]"] ;
54 -> 56 ;
57 [label="gini = 0.0\nsamples = 1\nvalue = [0, 1]"] ;
53 -> 57 ;
58 [label="gini = 0.0\nsamples = 1\nvalue = [0, 1]"] ;
52 -> 58 ;
59 [label="gini = 0.0\nsamples = 16\nvalue = [0, 16]"] ;
3 -> 59 ;
60 [label="gini = 0.0\nsamples = 69\nvalue = [0, 69]"] ;
2 -> 60 ;
61 [label="death_prob_sex_age_median <= 0.056\ngini = 0.49\nsamples = 985\nvalue = [422, 563]"] ;
1 -> 61 ;
62 [label="state_fips_code_6 <= 0.5\ngini = 0.404\nsamples = 320\nvalue = [230, 90]"] ;
61 -> 62 ;
63 [label="state_fips_code_17 <= 0.5\ngini = 0.344\nsamples = 295\nvalue = [230, 65]"] ;
62 -> 63 ;
64 [label="state_fips_code_4 <= 0.5\ngini = 0.311\nsamples = 285\nvalue = [230, 55]"] ;
63 -> 64 ;
65 [label="case_month_2021-07 <= 0.5\ngini = 0.262\nsamples = 265\nvalue = [224, 41]"] ;
64 -> 65 ;
66 [label="case_month_2021-08 <= 0.5\ngini = 0.217\nsamples = 250\nvalue = [219, 31]"] ;
65 -> 66 ;
67 [label="case_month_2020-03 <= 0.5\ngini = 0.155\nsamples = 225\nvalue = [206, 19]"] ;
66 -> 67 ;
68 [label="state_fips_code_35 <= 0.5\ngini = 0.092\nsamples = 208\nvalue = [198, 10]"] ;
67 -> 68 ;
69 [label="gini = 0.075\nsamples = 206\nvalue = [198, 8]"] ;
68 -> 69 ;
70 [label="gini = 0.0\nsamples = 2\nvalue = [0, 2]"] ;
68 -> 70 ;
71 [label="state_fips_code_36 <= 0.5\ngini = 0.498\nsamples = 17\nvalue = [8, 9]"] ;
67 -> 71 ;
72 [label="gini = 0.397\nsamples = 11\nvalue = [8, 3]"] ;
71 -> 72 ;
73 [label="gini = 0.0\nsamples = 6\nvalue = [0, 6]"] ;
71 -> 73 ;
74 [label="death_prob_medical_mean <= 0.515\ngini = 0.499\nsamples = 25\nvalue = [13, 12]"] ;
66 -> 74 ;
75 [label="gini = 0.0\nsamples = 8\nvalue = [0, 8]"] ;
74 -> 75 ;
76 [label="state_fips_code_47 <= 0.5\ngini = 0.36\nsamples = 17\nvalue = [13, 4]"] ;
74 -> 76 ;
77 [label="gini = 0.305\nsamples = 16\nvalue = [13, 3]"] ;
76 -> 77 ;
78 [label="gini = 0.0\nsamples = 1\nvalue = [0, 1]"] ;
76 -> 78 ;
79 [label="state_fips_code_20 <= 0.5\ngini = 0.444\nsamples = 15\nvalue = [5, 10]"] ;
65 -> 79 ;
80 [label="ethnicity_Hispanic/Latino <= 0.5\ngini = 0.355\nsamples = 13\nvalue = [3, 10]"] ;
79 -> 80 ;
81 [label="state_fips_code_27 <= 0.5\ngini = 0.18\nsamples = 10\nvalue = [1, 9]"] ;
80 -> 81 ;
82 [label="gini = 0.0\nsamples = 9\nvalue = [0, 9]"] ;
81 -> 82 ;
83 [label="gini = 0.0\nsamples = 1\nvalue = [1, 0]"] ;
81 -> 83 ;
84 [label="sex_Male <= 0.5\ngini = 0.444\nsamples = 3\nvalue = [2, 1]"] ;
80 -> 84 ;
85 [label="gini = 0.5\nsamples = 2\nvalue = [1, 1]"] ;
84 -> 85 ;
86 [label="gini = 0.0\nsamples = 1\nvalue = [1, 0]"] ;
84 -> 86 ;
87 [label="gini = 0.0\nsamples = 2\nvalue = [2, 0]"] ;
79 -> 87 ;
88 [label="death_prob_medical_mean <= 0.515\ngini = 0.42\nsamples = 20\nvalue = [6, 14]"] ;
64 -> 88 ;
89 [label="gini = 0.0\nsamples = 9\nvalue = [0, 9]"] ;
88 -> 89 ;
90 [label="death_prob_month <= 0.231\ngini = 0.496\nsamples = 11\nvalue = [6, 5]"] ;
88 -> 90 ;
91 [label="gini = 0.0\nsamples = 2\nvalue = [0, 2]"] ;
90 -> 91 ;
92 [label="death_prob_month <= 0.312\ngini = 0.444\nsamples = 9\nvalue = [6, 3]"] ;
90 -> 92 ;
93 [label="gini = 0.0\nsamples = 3\nvalue = [3, 0]"] ;
92 -> 93 ;
94 [label="case_month_2020-12 <= 0.5\ngini = 0.5\nsamples = 6\nvalue = [3, 3]"] ;
92 -> 94 ;
95 [label="gini = 0.375\nsamples = 4\nvalue = [1, 3]"] ;
94 -> 95 ;
96 [label="gini = 0.0\nsamples = 2\nvalue = [2, 0]"] ;
94 -> 96 ;
97 [label="gini = 0.0\nsamples = 10\nvalue = [0, 10]"] ;
63 -> 97 ;
98 [label="gini = 0.0\nsamples = 25\nvalue = [0, 25]"] ;
62 -> 98 ;
99 [label="death_prob_month <= 0.139\ngini = 0.411\nsamples = 665\nvalue = [192, 473]"] ;
61 -> 99 ;
100 [label="state_fips_code_4 <= 0.5\ngini = 0.4\nsamples = 65\nvalue = [47, 18]"] ;
99 -> 100 ;
101 [label="state_fips_code_72 <= 0.5\ngini = 0.354\nsamples = 61\nvalue = [47, 14]"] ;
100 -> 101 ;
102 [label="state_fips_code_36 <= 0.5\ngini = 0.307\nsamples = 58\nvalue = [47, 11]"] ;
101 -> 102 ;
103 [label="ethnicity_Hispanic/Latino <= 0.5\ngini = 0.229\nsamples = 53\nvalue = [46, 7]"] ;
102 -> 103 ;
104 [label="state_fips_code_26 <= 0.5\ngini = 0.117\nsamples = 48\nvalue = [45, 3]"] ;
103 -> 104 ;
105 [label="state_fips_code_42 <= 0.5\ngini = 0.081\nsamples = 47\nvalue = [45, 2]"] ;
104 -> 105 ;
106 [label="gini = 0.043\nsamples = 45\nvalue = [44, 1]"] ;
105 -> 106 ;
107 [label="gini = 0.5\nsamples = 2\nvalue = [1, 1]"] ;
105 -> 107 ;
108 [label="gini = 0.0\nsamples = 1\nvalue = [0, 1]"] ;
104 -> 108 ;
109 [label="state_fips_code_48 <= 0.5\ngini = 0.32\nsamples = 5\nvalue = [1, 4]"] ;
103 -> 109 ;
110 [label="gini = 0.0\nsamples = 4\nvalue = [0, 4]"] ;
109 -> 110 ;
111 [label="gini = 0.0\nsamples = 1\nvalue = [1, 0]"] ;
109 -> 111 ;
112 [label="case_month_2021-04 <= 0.5\ngini = 0.32\nsamples = 5\nvalue = [1, 4]"] ;
102 -> 112 ;
113 [label="gini = 0.0\nsamples = 4\nvalue = [0, 4]"] ;
112 -> 113 ;
114 [label="gini = 0.0\nsamples = 1\nvalue = [1, 0]"] ;
112 -> 114 ;
115 [label="gini = 0.0\nsamples = 3\nvalue = [0, 3]"] ;
101 -> 115 ;
116 [label="gini = 0.0\nsamples = 4\nvalue = [0, 4]"] ;
100 -> 116 ;
117 [label="state_fips_code_6 <= 0.5\ngini = 0.367\nsamples = 600\nvalue = [145, 455]"] ;
99 -> 117 ;
118 [label="state_fips_code_39 <= 0.5\ngini = 0.426\nsamples = 472\nvalue = [145, 327]"] ;
117 -> 118 ;
119 [label="state_fips_code_27 <= 0.5\ngini = 0.406\nsamples = 449\nvalue = [127, 322]"] ;
118 -> 119 ;
120 [label="symptom_status_Symptomatic <= 0.5\ngini = 0.388\nsamples = 436\nvalue = [115, 321]"] ;
119 -> 120 ;
121 [label="ethnicity_Missing <= 0.5\ngini = 0.215\nsamples = 188\nvalue = [23, 165]"] ;
120 -> 121 ;
122 [label="state_fips_code_18 <= 0.5\ngini = 0.143\nsamples = 155\nvalue = [12, 143]"] ;
121 -> 122 ;
123 [label="gini = 0.122\nsamples = 153\nvalue = [10, 143]"] ;
122 -> 123 ;
124 [label="gini = 0.0\nsamples = 2\nvalue = [2, 0]"] ;
122 -> 124 ;
125 [label="death_prob_month <= 0.22\ngini = 0.444\nsamples = 33\nvalue = [11, 22]"] ;
121 -> 125 ;
126 [label="gini = 0.0\nsamples = 6\nvalue = [6, 0]"] ;
125 -> 126 ;
127 [label="gini = 0.302\nsamples = 27\nvalue = [5, 22]"] ;
125 -> 127 ;
128 [label="state_fips_code_36 <= 0.5\ngini = 0.467\nsamples = 248\nvalue = [92, 156]"] ;
120 -> 128 ;
129 [label="state_fips_code_32 <= 0.5\ngini = 0.487\nsamples = 212\nvalue = [89, 123]"] ;
128 -> 129 ;
130 [label="gini = 0.496\nsamples = 190\nvalue = [87, 103]"] ;
129 -> 130 ;
131 [label="gini = 0.165\nsamples = 22\nvalue = [2, 20]"] ;
129 -> 131 ;
132 [label="death_prob_month <= 0.164\ngini = 0.153\nsamples = 36\nvalue = [3, 33]"] ;
128 -> 132 ;
133 [label="gini = 0.0\nsamples = 1\nvalue = [1, 0]"] ;
132 -> 133 ;
134 [label="gini = 0.108\nsamples = 35\nvalue = [2, 33]"] ;
132 -> 134 ;
135 [label="case_month_2021-11 <= 0.5\ngini = 0.142\nsamples = 13\nvalue = [12, 1]"] ;
119 -> 135 ;
136 [label="gini = 0.0\nsamples = 11\nvalue = [11, 0]"] ;
135 -> 136 ;
137 [label="sex_Male <= 0.5\ngini = 0.5\nsamples = 2\nvalue = [1, 1]"] ;
135 -> 137 ;
138 [label="gini = 0.0\nsamples = 1\nvalue = [1, 0]"] ;
137 -> 138 ;
139 [label="gini = 0.0\nsamples = 1\nvalue = [0, 1]"] ;
137 -> 139 ;
140 [label="death_prob_month <= 0.172\ngini = 0.34\nsamples = 23\nvalue = [18, 5]"] ;
118 -> 140 ;
141 [label="symptom_status_Missing <= 0.5\ngini = 0.5\nsamples = 8\nvalue = [4, 4]"] ;
140 -> 141 ;
142 [label="death_prob_month <= 0.157\ngini = 0.375\nsamples = 4\nvalue = [3, 1]"] ;
141 -> 142 ;
143 [label="gini = 0.0\nsamples = 1\nvalue = [0, 1]"] ;
142 -> 143 ;
144 [label="gini = 0.0\nsamples = 3\nvalue = [3, 0]"] ;
142 -> 144 ;
145 [label="sex_Male <= 0.5\ngini = 0.375\nsamples = 4\nvalue = [1, 3]"] ;
141 -> 145 ;
146 [label="gini = 0.0\nsamples = 2\nvalue = [0, 2]"] ;
145 -> 146 ;
147 [label="race_White <= 0.5\ngini = 0.5\nsamples = 2\nvalue = [1, 1]"] ;
145 -> 147 ;
148 [label="gini = 0.0\nsamples = 1\nvalue = [0, 1]"] ;
147 -> 148 ;
149 [label="gini = 0.0\nsamples = 1\nvalue = [1, 0]"] ;
147 -> 149 ;
150 [label="current_status_Probable Case <= 0.5\ngini = 0.124\nsamples = 15\nvalue = [14, 1]"] ;
140 -> 150 ;
151 [label="gini = 0.0\nsamples = 14\nvalue = [14, 0]"] ;
150 -> 151 ;
152 [label="gini = 0.0\nsamples = 1\nvalue = [0, 1]"] ;
150 -> 152 ;
153 [label="gini = 0.0\nsamples = 128\nvalue = [0, 128]"] ;
117 -> 153 ;
154 [label="hosp_yn_No <= 0.5\ngini = 0.411\nsamples = 8638\nvalue = [2493, 6145]"] ;
0 -> 154 [labeldistance=2.5, labelangle=-45, headlabel="False"] ;
155 [label="death_prob_month <= 0.106\ngini = 0.292\nsamples = 6358\nvalue = [1130, 5228]"] ;
154 -> 155 ;
156 [label="hosp_yn_Yes <= 0.5\ngini = 0.475\nsamples = 670\nvalue = [410, 260]"] ;
155 -> 156 ;
157 [label="state_fips_code_26 <= 0.5\ngini = 0.355\nsamples = 446\nvalue = [343, 103]"] ;
156 -> 157 ;
158 [label="state_fips_code_12 <= 0.5\ngini = 0.297\nsamples = 414\nvalue = [339, 75]"] ;
157 -> 158 ;
159 [label="state_fips_code_25 <= 0.5\ngini = 0.24\nsamples = 388\nvalue = [334, 54]"] ;
158 -> 159 ;
160 [label="state_fips_code_17 <= 0.5\ngini = 0.199\nsamples = 375\nvalue = [333, 42]"] ;
159 -> 160 ;
161 [label="state_fips_code_6 <= 0.5\ngini = 0.168\nsamples = 367\nvalue = [333, 34]"] ;
160 -> 161 ;
162 [label="state_fips_code_47 <= 0.5\ngini = 0.134\nsamples = 359\nvalue = [333, 26]"] ;
161 -> 162 ;
163 [label="gini = 0.116\nsamples = 355\nvalue = [333, 22]"] ;
162 -> 163 ;
164 [label="gini = 0.0\nsamples = 4\nvalue = [0, 4]"] ;
162 -> 164 ;
165 [label="gini = 0.0\nsamples = 8\nvalue = [0, 8]"] ;
161 -> 165 ;
166 [label="gini = 0.0\nsamples = 8\nvalue = [0, 8]"] ;
160 -> 166 ;
167 [label="symptom_status_Missing <= 0.5\ngini = 0.142\nsamples = 13\nvalue = [1, 12]"] ;
159 -> 167 ;
168 [label="gini = 0.0\nsamples = 1\nvalue = [1, 0]"] ;
167 -> 168 ;
169 [label="gini = 0.0\nsamples = 12\nvalue = [0, 12]"] ;
167 -> 169 ;
170 [label="ethnicity_Non-Hispanic/Latino <= 0.5\ngini = 0.311\nsamples = 26\nvalue = [5, 21]"] ;
158 -> 170 ;
171 [label="case_month_2022-03 <= 0.5\ngini = 0.444\nsamples = 3\nvalue = [2, 1]"] ;
170 -> 171 ;
172 [label="sex_Male <= 0.5\ngini = 0.5\nsamples = 2\nvalue = [1, 1]"] ;
171 -> 172 ;
173 [label="gini = 0.0\nsamples = 1\nvalue = [1, 0]"] ;
172 -> 173 ;
174 [label="gini = 0.0\nsamples = 1\nvalue = [0, 1]"] ;
172 -> 174 ;
175 [label="gini = 0.0\nsamples = 1\nvalue = [1, 0]"] ;
171 -> 175 ;
176 [label="death_prob_month <= 0.033\ngini = 0.227\nsamples = 23\nvalue = [3, 20]"] ;
170 -> 176 ;
177 [label="gini = 0.0\nsamples = 1\nvalue = [1, 0]"] ;
176 -> 177 ;
178 [label="case_month_2021-03 <= 0.5\ngini = 0.165\nsamples = 22\nvalue = [2, 20]"] ;
176 -> 178 ;
179 [label="sex_Male <= 0.5\ngini = 0.095\nsamples = 20\nvalue = [1, 19]"] ;
178 -> 179 ;
180 [label="gini = 0.219\nsamples = 8\nvalue = [1, 7]"] ;
179 -> 180 ;
181 [label="gini = 0.0\nsamples = 12\nvalue = [0, 12]"] ;
179 -> 181 ;
182 [label="symptom_status_Symptomatic <= 0.5\ngini = 0.5\nsamples = 2\nvalue = [1, 1]"] ;
178 -> 182 ;
183 [label="gini = 0.0\nsamples = 1\nvalue = [0, 1]"] ;
182 -> 183 ;
184 [label="gini = 0.0\nsamples = 1\nvalue = [1, 0]"] ;
182 -> 184 ;
185 [label="symptom_status_Symptomatic <= 0.5\ngini = 0.219\nsamples = 32\nvalue = [4, 28]"] ;
157 -> 185 ;
186 [label="gini = 0.0\nsamples = 24\nvalue = [0, 24]"] ;
185 -> 186 ;
187 [label="case_month_2021-04 <= 0.5\ngini = 0.5\nsamples = 8\nvalue = [4, 4]"] ;
185 -> 187 ;
188 [label="sex_Male <= 0.5\ngini = 0.32\nsamples = 5\nvalue = [4, 1]"] ;
187 -> 188 ;
189 [label="case_month_2022-11 <= 0.5\ngini = 0.5\nsamples = 2\nvalue = [1, 1]"] ;
188 -> 189 ;
190 [label="gini = 0.0\nsamples = 1\nvalue = [0, 1]"] ;
189 -> 190 ;
191 [label="gini = 0.0\nsamples = 1\nvalue = [1, 0]"] ;
189 -> 191 ;
192 [label="gini = 0.0\nsamples = 3\nvalue = [3, 0]"] ;
188 -> 192 ;
193 [label="gini = 0.0\nsamples = 3\nvalue = [0, 3]"] ;
187 -> 193 ;
194 [label="state_fips_code_39 <= 0.5\ngini = 0.419\nsamples = 224\nvalue = [67, 157]"] ;
156 -> 194 ;
195 [label="state_fips_code_24 <= 0.5\ngini = 0.392\nsamples = 213\nvalue = [57, 156]"] ;
194 -> 195 ;
196 [label="state_fips_code_27 <= 0.5\ngini = 0.368\nsamples = 206\nvalue = [50, 156]"] ;
195 -> 196 ;
197 [label="state_fips_code_41 <= 0.5\ngini = 0.339\nsamples = 199\nvalue = [43, 156]"] ;
196 -> 197 ;
198 [label="state_fips_code_34 <= 0.5\ngini = 0.31\nsamples = 193\nvalue = [37, 156]"] ;
197 -> 198 ;
199 [label="state_fips_code_37 <= 0.5\ngini = 0.25\nsamples = 171\nvalue = [25, 146]"] ;
198 -> 199 ;
200 [label="gini = 0.228\nsamples = 168\nvalue = [22, 146]"] ;
199 -> 200 ;
201 [label="gini = 0.0\nsamples = 3\nvalue = [3, 0]"] ;
199 -> 201 ;
202 [label="case_month_2021-03 <= 0.5\ngini = 0.496\nsamples = 22\nvalue = [12, 10]"] ;
198 -> 202 ;
203 [label="gini = 0.355\nsamples = 13\nvalue = [10, 3]"] ;
202 -> 203 ;
204 [label="gini = 0.346\nsamples = 9\nvalue = [2, 7]"] ;
202 -> 204 ;
205 [label="gini = 0.0\nsamples = 6\nvalue = [6, 0]"] ;
197 -> 205 ;
206 [label="gini = 0.0\nsamples = 7\nvalue = [7, 0]"] ;
196 -> 206 ;
207 [label="gini = 0.0\nsamples = 7\nvalue = [7, 0]"] ;
195 -> 207 ;
208 [label="case_month_2021-04 <= 0.5\ngini = 0.165\nsamples = 11\nvalue = [10, 1]"] ;
194 -> 208 ;
209 [label="gini = 0.0\nsamples = 9\nvalue = [9, 0]"] ;
208 -> 209 ;
210 [label="death_prob_medical_mean <= 0.474\ngini = 0.5\nsamples = 2\nvalue = [1, 1]"] ;
208 -> 210 ;
211 [label="gini = 0.0\nsamples = 1\nvalue = [0, 1]"] ;
210 -> 211 ;
212 [label="gini = 0.0\nsamples = 1\nvalue = [1, 0]"] ;
210 -> 212 ;
213 [label="state_fips_code_27 <= 0.5\ngini = 0.221\nsamples = 5688\nvalue = [720, 4968]"] ;
155 -> 213 ;
214 [label="state_fips_code_37 <= 0.5\ngini = 0.197\nsamples = 5501\nvalue = [611, 4890]"] ;
213 -> 214 ;
215 [label="ethnicity_Missing <= 0.5\ngini = 0.174\nsamples = 5335\nvalue = [514, 4821]"] ;
214 -> 215 ;
216 [label="state_fips_code_20 <= 0.5\ngini = 0.131\nsamples = 4451\nvalue = [314, 4137]"] ;
215 -> 216 ;
217 [label="state_fips_code_21 <= 0.5\ngini = 0.125\nsamples = 4391\nvalue = [293, 4098]"] ;
216 -> 217 ;
218 [label="state_fips_code_39 <= 0.5\ngini = 0.118\nsamples = 4321\nvalue = [271, 4050]"] ;
217 -> 218 ;
219 [label="state_fips_code_6 <= 0.5\ngini = 0.105\nsamples = 4006\nvalue = [223, 3783]"] ;
218 -> 219 ;
220 [label="gini = 0.121\nsamples = 3436\nvalue = [223, 3213]"] ;
219 -> 220 ;
221 [label="gini = 0.0\nsamples = 570\nvalue = [0, 570]"] ;
219 -> 221 ;
222 [label="case_month_2022-02 <= 0.5\ngini = 0.258\nsamples = 315\nvalue = [48, 267]"] ;
218 -> 222 ;
223 [label="gini = 0.251\nsamples = 313\nvalue = [46, 267]"] ;
222 -> 223 ;
224 [label="gini = 0.0\nsamples = 2\nvalue = [2, 0]"] ;
222 -> 224 ;
225 [label="hosp_yn_Yes <= 0.5\ngini = 0.431\nsamples = 70\nvalue = [22, 48]"] ;
217 -> 225 ;
226 [label="case_month_2021-12 <= 0.5\ngini = 0.487\nsamples = 31\nvalue = [18, 13]"] ;
225 -> 226 ;
227 [label="gini = 0.5\nsamples = 26\nvalue = [13, 13]"] ;
226 -> 227 ;
228 [label="gini = 0.0\nsamples = 5\nvalue = [5, 0]"] ;
226 -> 228 ;
229 [label="symptom_status_Asymptomatic <= 0.5\ngini = 0.184\nsamples = 39\nvalue = [4, 35]"] ;
225 -> 229 ;
230 [label="gini = 0.145\nsamples = 38\nvalue = [3, 35]"] ;
229 -> 230 ;
231 [label="gini = 0.0\nsamples = 1\nvalue = [1, 0]"] ;
229 -> 231 ;
232 [label="hosp_yn_Missing <= 0.5\ngini = 0.455\nsamples = 60\nvalue = [21, 39]"] ;
216 -> 232 ;
233 [label="death_prob_month <= 0.574\ngini = 0.272\nsamples = 37\nvalue = [6, 31]"] ;
232 -> 233 ;
234 [label="case_month_2021-08 <= 0.5\ngini = 0.239\nsamples = 36\nvalue = [5, 31]"] ;
233 -> 234 ;
235 [label="gini = 0.208\nsamples = 34\nvalue = [4, 30]"] ;
234 -> 235 ;
236 [label="gini = 0.5\nsamples = 2\nvalue = [1, 1]"] ;
234 -> 236 ;
237 [label="gini = 0.0\nsamples = 1\nvalue = [1, 0]"] ;
233 -> 237 ;
238 [label="case_month_2020-11 <= 0.5\ngini = 0.454\nsamples = 23\nvalue = [15, 8]"] ;
232 -> 238 ;
239 [label="case_month_2021-09 <= 0.5\ngini = 0.305\nsamples = 16\nvalue = [13, 3]"] ;
238 -> 239 ;
240 [label="gini = 0.245\nsamples = 14\nvalue = [12, 2]"] ;
239 -> 240 ;
241 [label="gini = 0.5\nsamples = 2\nvalue = [1, 1]"] ;
239 -> 241 ;
242 [label="sex_Male <= 0.5\ngini = 0.408\nsamples = 7\nvalue = [2, 5]"] ;
238 -> 242 ;
243 [label="gini = 0.0\nsamples = 4\nvalue = [0, 4]"] ;
242 -> 243 ;
244 [label="gini = 0.444\nsamples = 3\nvalue = [2, 1]"] ;
242 -> 244 ;
245 [label="hosp_yn_Yes <= 0.5\ngini = 0.35\nsamples = 884\nvalue = [200, 684]"] ;
215 -> 245 ;
246 [label="state_fips_code_36 <= 0.5\ngini = 0.456\nsamples = 443\nvalue = [156, 287]"] ;
245 -> 246 ;
247 [label="state_fips_code_39 <= 0.5\ngini = 0.339\nsamples = 301\nvalue = [65, 236]"] ;
246 -> 247 ;
248 [label="state_fips_code_21 <= 0.5\ngini = 0.296\nsamples = 288\nvalue = [52, 236]"] ;
247 -> 248 ;
249 [label="gini = 0.25\nsamples = 273\nvalue = [40, 233]"] ;
248 -> 249 ;
250 [label="gini = 0.32\nsamples = 15\nvalue = [12, 3]"] ;
248 -> 250 ;
251 [label="gini = 0.0\nsamples = 13\nvalue = [13, 0]"] ;
247 -> 251 ;
252 [label="death_prob_month <= 0.485\ngini = 0.46\nsamples = 142\nvalue = [91, 51]"] ;
246 -> 252 ;
253 [label="case_month_2021-02 <= 0.5\ngini = 0.088\nsamples = 87\nvalue = [83, 4]"] ;
252 -> 253 ;
254 [label="gini = 0.048\nsamples = 81\nvalue = [79, 2]"] ;
253 -> 254 ;
255 [label="gini = 0.444\nsamples = 6\nvalue = [4, 2]"] ;
253 -> 255 ;
256 [label="death_prob_month <= 0.632\ngini = 0.249\nsamples = 55\nvalue = [8, 47]"] ;
252 -> 256 ;
257 [label="gini = 0.496\nsamples = 11\nvalue = [5, 6]"] ;
256 -> 257 ;
258 [label="gini = 0.127\nsamples = 44\nvalue = [3, 41]"] ;
256 -> 258 ;
259 [label="state_fips_code_39 <= 0.5\ngini = 0.18\nsamples = 441\nvalue = [44, 397]"] ;
245 -> 259 ;
260 [label="state_fips_code_41 <= 0.5\ngini = 0.17\nsamples = 438\nvalue = [41, 397]"] ;
259 -> 260 ;
261 [label="state_fips_code_51 <= 0.5\ngini = 0.16\nsamples = 434\nvalue = [38, 396]"] ;
260 -> 261 ;
262 [label="gini = 0.153\nsamples = 432\nvalue = [36, 396]"] ;
261 -> 262 ;
263 [label="gini = 0.0\nsamples = 2\nvalue = [2, 0]"] ;
261 -> 263 ;
264 [label="case_month_2021-09 <= 0.5\ngini = 0.375\nsamples = 4\nvalue = [3, 1]"] ;
260 -> 264 ;
265 [label="gini = 0.0\nsamples = 3\nvalue = [3, 0]"] ;
264 -> 265 ;
266 [label="gini = 0.0\nsamples = 1\nvalue = [0, 1]"] ;
264 -> 266 ;
267 [label="gini = 0.0\nsamples = 3\nvalue = [3, 0]"] ;
259 -> 267 ;
268 [label="hosp_yn_Missing <= 0.5\ngini = 0.486\nsamples = 166\nvalue = [97, 69]"] ;
214 -> 268 ;
269 [label="ethnicity_Missing <= 0.5\ngini = 0.309\nsamples = 68\nvalue = [13, 55]"] ;
268 -> 269 ;
270 [label="case_month_2020-06 <= 0.5\ngini = 0.183\nsamples = 59\nvalue = [6, 53]"] ;
269 -> 270 ;
271 [label="race_White <= 0.5\ngini = 0.158\nsamples = 58\nvalue = [5, 53]"] ;
270 -> 271 ;
272 [label="sex_Male <= 0.5\ngini = 0.32\nsamples = 10\nvalue = [2, 8]"] ;
271 -> 272 ;
273 [label="gini = 0.0\nsamples = 4\nvalue = [0, 4]"] ;
272 -> 273 ;
274 [label="gini = 0.444\nsamples = 6\nvalue = [2, 4]"] ;
272 -> 274 ;
275 [label="case_month_2020-10 <= 0.5\ngini = 0.117\nsamples = 48\nvalue = [3, 45]"] ;
271 -> 275 ;
276 [label="gini = 0.089\nsamples = 43\nvalue = [2, 41]"] ;
275 -> 276 ;
277 [label="gini = 0.32\nsamples = 5\nvalue = [1, 4]"] ;
275 -> 277 ;
278 [label="gini = 0.0\nsamples = 1\nvalue = [1, 0]"] ;
270 -> 278 ;
279 [label="death_prob_month <= 0.662\ngini = 0.346\nsamples = 9\nvalue = [7, 2]"] ;
269 -> 279 ;
280 [label="case_month_2021-01 <= 0.5\ngini = 0.219\nsamples = 8\nvalue = [7, 1]"] ;
279 -> 280 ;
281 [label="gini = 0.0\nsamples = 6\nvalue = [6, 0]"] ;
280 -> 281 ;
282 [label="gini = 0.5\nsamples = 2\nvalue = [1, 1]"] ;
280 -> 282 ;
283 [label="gini = 0.0\nsamples = 1\nvalue = [0, 1]"] ;
279 -> 283 ;
284 [label="ethnicity_Non-Hispanic/Latino <= 0.5\ngini = 0.245\nsamples = 98\nvalue = [84, 14]"] ;
268 -> 284 ;
285 [label="case_month_2020-12 <= 0.5\ngini = 0.04\nsamples = 49\nvalue = [48, 1]"] ;
284 -> 285 ;
286 [label="gini = 0.0\nsamples = 43\nvalue = [43, 0]"] ;
285 -> 286 ;
287 [label="race_White <= 0.5\ngini = 0.278\nsamples = 6\nvalue = [5, 1]"] ;
285 -> 287 ;
288 [label="gini = 0.5\nsamples = 2\nvalue = [1, 1]"] ;
287 -> 288 ;
289 [label="gini = 0.0\nsamples = 4\nvalue = [4, 0]"] ;
287 -> 289 ;
290 [label="case_month_2020-11 <= 0.5\ngini = 0.39\nsamples = 49\nvalue = [36, 13]"] ;
284 -> 290 ;
291 [label="death_prob_month <= 0.239\ngini = 0.359\nsamples = 47\nvalue = [36, 11]"] ;
290 -> 291 ;
292 [label="current_status_Probable Case <= 0.5\ngini = 0.264\nsamples = 32\nvalue = [27, 5]"] ;
291 -> 292 ;
293 [label="gini = 0.198\nsamples = 27\nvalue = [24, 3]"] ;
292 -> 293 ;
294 [label="gini = 0.48\nsamples = 5\nvalue = [3, 2]"] ;
292 -> 294 ;
295 [label="current_status_Probable Case <= 0.5\ngini = 0.48\nsamples = 15\nvalue = [9, 6]"] ;
291 -> 295 ;
296 [label="gini = 0.459\nsamples = 14\nvalue = [9, 5]"] ;
295 -> 296 ;
297 [label="gini = 0.0\nsamples = 1\nvalue = [0, 1]"] ;
295 -> 297 ;
298 [label="gini = 0.0\nsamples = 2\nvalue = [0, 2]"] ;
290 -> 298 ;
299 [label="symptom_status_Missing <= 0.5\ngini = 0.486\nsamples = 187\nvalue = [109, 78]"] ;
213 -> 299 ;
300 [label="ethnicity_Non-Hispanic/Latino <= 0.5\ngini = 0.473\nsamples = 94\nvalue = [36, 58]"] ;
299 -> 300 ;
301 [label="gini = 0.0\nsamples = 9\nvalue = [9, 0]"] ;
300 -> 301 ;
302 [label="death_prob_month <= 0.485\ngini = 0.433\nsamples = 85\nvalue = [27, 58]"] ;
300 -> 302 ;
303 [label="hosp_yn_Yes <= 0.5\ngini = 0.466\nsamples = 73\nvalue = [27, 46]"] ;
302 -> 303 ;
304 [label="death_prob_month <= 0.329\ngini = 0.499\nsamples = 44\nvalue = [21, 23]"] ;
303 -> 304 ;
305 [label="sex_Male <= 0.5\ngini = 0.478\nsamples = 33\nvalue = [13, 20]"] ;
304 -> 305 ;
306 [label="gini = 0.391\nsamples = 15\nvalue = [4, 11]"] ;
305 -> 306 ;
307 [label="gini = 0.5\nsamples = 18\nvalue = [9, 9]"] ;
305 -> 307 ;
308 [label="current_status_Probable Case <= 0.5\ngini = 0.397\nsamples = 11\nvalue = [8, 3]"] ;
304 -> 308 ;
309 [label="gini = 0.32\nsamples = 10\nvalue = [8, 2]"] ;
308 -> 309 ;
310 [label="gini = 0.0\nsamples = 1\nvalue = [0, 1]"] ;
308 -> 310 ;
311 [label="death_prob_month <= 0.19\ngini = 0.328\nsamples = 29\nvalue = [6, 23]"] ;
303 -> 311 ;
312 [label="sex_Female <= 0.5\ngini = 0.444\nsamples = 3\nvalue = [2, 1]"] ;
311 -> 312 ;
313 [label="gini = 0.5\nsamples = 2\nvalue = [1, 1]"] ;
312 -> 313 ;
314 [label="gini = 0.0\nsamples = 1\nvalue = [1, 0]"] ;
312 -> 314 ;
315 [label="death_prob_month <= 0.287\ngini = 0.26\nsamples = 26\nvalue = [4, 22]"] ;
311 -> 315 ;
316 [label="gini = 0.0\nsamples = 9\nvalue = [0, 9]"] ;
315 -> 316 ;
317 [label="gini = 0.36\nsamples = 17\nvalue = [4, 13]"] ;
315 -> 317 ;
318 [label="gini = 0.0\nsamples = 12\nvalue = [0, 12]"] ;
302 -> 318 ;
319 [label="hosp_yn_Missing <= 0.5\ngini = 0.338\nsamples = 93\nvalue = [73, 20]"] ;
299 -> 319 ;
320 [label="sex_Female <= 0.5\ngini = 0.465\nsamples = 19\nvalue = [7, 12]"] ;
319 -> 320 ;
321 [label="death_prob_month <= 0.349\ngini = 0.355\nsamples = 13\nvalue = [3, 10]"] ;
320 -> 321 ;
322 [label="death_prob_month <= 0.182\ngini = 0.278\nsamples = 12\nvalue = [2, 10]"] ;
321 -> 322 ;
323 [label="case_month_2021-12 <= 0.5\ngini = 0.48\nsamples = 5\nvalue = [2, 3]"] ;
322 -> 323 ;
324 [label="gini = 0.5\nsamples = 4\nvalue = [2, 2]"] ;
323 -> 324 ;
325 [label="gini = 0.0\nsamples = 1\nvalue = [0, 1]"] ;
323 -> 325 ;
326 [label="gini = 0.0\nsamples = 7\nvalue = [0, 7]"] ;
322 -> 326 ;
327 [label="gini = 0.0\nsamples = 1\nvalue = [1, 0]"] ;
321 -> 327 ;
328 [label="case_month_2020-12 <= 0.5\ngini = 0.444\nsamples = 6\nvalue = [4, 2]"] ;
320 -> 328 ;
329 [label="case_month_2022-01 <= 0.5\ngini = 0.32\nsamples = 5\nvalue = [4, 1]"] ;
328 -> 329 ;
330 [label="gini = 0.0\nsamples = 2\nvalue = [2, 0]"] ;
329 -> 330 ;
331 [label="ethnicity_Missing <= 0.5\ngini = 0.444\nsamples = 3\nvalue = [2, 1]"] ;
329 -> 331 ;
332 [label="gini = 0.5\nsamples = 2\nvalue = [1, 1]"] ;
331 -> 332 ;
333 [label="gini = 0.0\nsamples = 1\nvalue = [1, 0]"] ;
331 -> 333 ;
334 [label="gini = 0.0\nsamples = 1\nvalue = [0, 1]"] ;
328 -> 334 ;
335 [label="case_month_2020-12 <= 0.5\ngini = 0.193\nsamples = 74\nvalue = [66, 8]"] ;
319 -> 335 ;
336 [label="ethnicity_Non-Hispanic/Latino <= 0.5\ngini = 0.153\nsamples = 72\nvalue = [66, 6]"] ;
335 -> 336 ;
337 [label="gini = 0.0\nsamples = 24\nvalue = [24, 0]"] ;
336 -> 337 ;
338 [label="case_month_2021-11 <= 0.5\ngini = 0.219\nsamples = 48\nvalue = [42, 6]"] ;
336 -> 338 ;
339 [label="case_month_2022-01 <= 0.5\ngini = 0.176\nsamples = 41\nvalue = [37, 4]"] ;
338 -> 339 ;
340 [label="gini = 0.071\nsamples = 27\nvalue = [26, 1]"] ;
339 -> 340 ;
341 [label="gini = 0.337\nsamples = 14\nvalue = [11, 3]"] ;
339 -> 341 ;
342 [label="sex_Female <= 0.5\ngini = 0.408\nsamples = 7\nvalue = [5, 2]"] ;
338 -> 342 ;
343 [label="gini = 0.32\nsamples = 5\nvalue = [4, 1]"] ;
342 -> 343 ;
344 [label="gini = 0.5\nsamples = 2\nvalue = [1, 1]"] ;
342 -> 344 ;
345 [label="gini = 0.0\nsamples = 2\nvalue = [0, 2]"] ;
335 -> 345 ;
346 [label="death_prob_month <= 0.229\ngini = 0.481\nsamples = 2280\nvalue = [1363, 917]"] ;
154 -> 346 ;
347 [label="state_fips_code_6 <= 0.5\ngini = 0.331\nsamples = 1018\nvalue = [805, 213]"] ;
346 -> 347 ;
348 [label="death_prob_month <= 0.157\ngini = 0.294\nsamples = 981\nvalue = [805, 176]"] ;
347 -> 348 ;
349 [label="state_fips_code_53 <= 0.5\ngini = 0.151\nsamples = 499\nvalue = [458, 41]"] ;
348 -> 349 ;
350 [label="state_fips_code_72 <= 0.5\ngini = 0.141\nsamples = 496\nvalue = [458, 38]"] ;
349 -> 350 ;
351 [label="state_fips_code_12 <= 0.5\ngini = 0.132\nsamples = 493\nvalue = [458, 35]"] ;
350 -> 351 ;
352 [label="state_fips_code_8 <= 0.5\ngini = 0.093\nsamples = 410\nvalue = [390, 20]"] ;
351 -> 352 ;
353 [label="state_fips_code_4 <= 0.5\ngini = 0.089\nsamples = 409\nvalue = [390, 19]"] ;
352 -> 353 ;
354 [label="gini = 0.077\nsamples = 400\nvalue = [384, 16]"] ;
353 -> 354 ;
355 [label="gini = 0.444\nsamples = 9\nvalue = [6, 3]"] ;
353 -> 355 ;
356 [label="gini = 0.0\nsamples = 1\nvalue = [0, 1]"] ;
352 -> 356 ;
357 [label="case_month_2022-08 <= 0.5\ngini = 0.296\nsamples = 83\nvalue = [68, 15]"] ;
351 -> 357 ;
358 [label="case_month_2022-07 <= 0.5\ngini = 0.245\nsamples = 77\nvalue = [66, 11]"] ;
357 -> 358 ;
359 [label="gini = 0.17\nsamples = 64\nvalue = [58, 6]"] ;
358 -> 359 ;
360 [label="gini = 0.473\nsamples = 13\nvalue = [8, 5]"] ;
358 -> 360 ;
361 [label="symptom_status_Symptomatic <= 0.5\ngini = 0.444\nsamples = 6\nvalue = [2, 4]"] ;
357 -> 361 ;
362 [label="gini = 0.0\nsamples = 3\nvalue = [0, 3]"] ;
361 -> 362 ;
363 [label="gini = 0.444\nsamples = 3\nvalue = [2, 1]"] ;
361 -> 363 ;
364 [label="gini = 0.0\nsamples = 3\nvalue = [0, 3]"] ;
350 -> 364 ;
365 [label="gini = 0.0\nsamples = 3\nvalue = [0, 3]"] ;
349 -> 365 ;
366 [label="symptom_status_Missing <= 0.5\ngini = 0.403\nsamples = 482\nvalue = [347, 135]"] ;
348 -> 366 ;
367 [label="ethnicity_Missing <= 0.5\ngini = 0.314\nsamples = 282\nvalue = [227, 55]"] ;
366 -> 367 ;
368 [label="state_fips_code_8 <= 0.5\ngini = 0.354\nsamples = 235\nvalue = [181, 54]"] ;
367 -> 368 ;
369 [label="case_month_2020-09 <= 0.5\ngini = 0.347\nsamples = 233\nvalue = [181, 52]"] ;
368 -> 369 ;
370 [label="state_fips_code_36 <= 0.5\ngini = 0.321\nsamples = 209\nvalue = [167, 42]"] ;
369 -> 370 ;
371 [label="gini = 0.343\nsamples = 191\nvalue = [149, 42]"] ;
370 -> 371 ;
372 [label="gini = 0.0\nsamples = 18\nvalue = [18, 0]"] ;
370 -> 372 ;
373 [label="symptom_status_Symptomatic <= 0.5\ngini = 0.486\nsamples = 24\nvalue = [14, 10]"] ;
369 -> 373 ;
374 [label="gini = 0.0\nsamples = 3\nvalue = [0, 3]"] ;
373 -> 374 ;
375 [label="gini = 0.444\nsamples = 21\nvalue = [14, 7]"] ;
373 -> 375 ;
376 [label="gini = 0.0\nsamples = 2\nvalue = [0, 2]"] ;
368 -> 376 ;
377 [label="state_fips_code_53 <= 0.5\ngini = 0.042\nsamples = 47\nvalue = [46, 1]"] ;
367 -> 377 ;
378 [label="gini = 0.0\nsamples = 46\nvalue = [46, 0]"] ;
377 -> 378 ;
379 [label="gini = 0.0\nsamples = 1\nvalue = [0, 1]"] ;
377 -> 379 ;
380 [label="ethnicity_Non-Hispanic/Latino <= 0.5\ngini = 0.48\nsamples = 200\nvalue = [120, 80]"] ;
366 -> 380 ;
381 [label="state_fips_code_72 <= 0.5\ngini = 0.324\nsamples = 64\nvalue = [51, 13]"] ;
380 -> 381 ;
382 [label="race_White <= 0.5\ngini = 0.292\nsamples = 62\nvalue = [51, 11]"] ;
381 -> 382 ;
383 [label="death_prob_month <= 0.172\ngini = 0.153\nsamples = 36\nvalue = [33, 3]"] ;
382 -> 383 ;
384 [label="gini = 0.408\nsamples = 7\nvalue = [5, 2]"] ;
383 -> 384 ;
385 [label="gini = 0.067\nsamples = 29\nvalue = [28, 1]"] ;
383 -> 385 ;
386 [label="state_fips_code_17 <= 0.5\ngini = 0.426\nsamples = 26\nvalue = [18, 8]"] ;
382 -> 386 ;
387 [label="gini = 0.403\nsamples = 25\nvalue = [18, 7]"] ;
386 -> 387 ;
388 [label="gini = 0.0\nsamples = 1\nvalue = [0, 1]"] ;
386 -> 388 ;
389 [label="gini = 0.0\nsamples = 2\nvalue = [0, 2]"] ;
381 -> 389 ;
390 [label="state_fips_code_12 <= 0.5\ngini = 0.5\nsamples = 136\nvalue = [69, 67]"] ;
380 -> 390 ;
391 [label="state_fips_code_4 <= 0.5\ngini = 0.491\nsamples = 109\nvalue = [62, 47]"] ;
390 -> 391 ;
392 [label="state_fips_code_17 <= 0.5\ngini = 0.476\nsamples = 100\nvalue = [61, 39]"] ;
391 -> 392 ;
393 [label="gini = 0.467\nsamples = 97\nvalue = [61, 36]"] ;
392 -> 393 ;
394 [label="gini = 0.0\nsamples = 3\nvalue = [0, 3]"] ;
392 -> 394 ;
395 [label="case_month_2022-01 <= 0.5\ngini = 0.198\nsamples = 9\nvalue = [1, 8]"] ;
391 -> 395 ;
396 [label="gini = 0.0\nsamples = 7\nvalue = [0, 7]"] ;
395 -> 396 ;
397 [label="gini = 0.5\nsamples = 2\nvalue = [1, 1]"] ;
395 -> 397 ;
398 [label="case_month_2021-11 <= 0.5\ngini = 0.384\nsamples = 27\nvalue = [7, 20]"] ;
390 -> 398 ;
399 [label="case_month_2021-02 <= 0.5\ngini = 0.32\nsamples = 25\nvalue = [5, 20]"] ;
398 -> 399 ;
400 [label="gini = 0.227\nsamples = 23\nvalue = [3, 20]"] ;
399 -> 400 ;
401 [label="gini = 0.0\nsamples = 2\nvalue = [2, 0]"] ;
399 -> 401 ;
402 [label="gini = 0.0\nsamples = 2\nvalue = [2, 0]"] ;
398 -> 402 ;
403 [label="gini = 0.0\nsamples = 37\nvalue = [0, 37]"] ;
347 -> 403 ;
404 [label="state_fips_code_6 <= 0.5\ngini = 0.493\nsamples = 1262\nvalue = [558, 704]"] ;
346 -> 404 ;
405 [label="death_prob_month <= 0.485\ngini = 0.5\nsamples = 1147\nvalue = [558, 589]"] ;
404 -> 405 ;
406 [label="symptom_status_Missing <= 0.5\ngini = 0.497\nsamples = 982\nvalue = [527, 455]"] ;
405 -> 406 ;
407 [label="state_fips_code_53 <= 0.5\ngini = 0.471\nsamples = 628\nvalue = [389, 239]"] ;
406 -> 407 ;
408 [label="ethnicity_Missing <= 0.5\ngini = 0.466\nsamples = 618\nvalue = [389, 229]"] ;
407 -> 408 ;
409 [label="state_fips_code_24 <= 0.5\ngini = 0.48\nsamples = 535\nvalue = [321, 214]"] ;
408 -> 409 ;
410 [label="death_prob_month <= 0.286\ngini = 0.483\nsamples = 524\nvalue = [310, 214]"] ;
409 -> 410 ;
411 [label="gini = 0.432\nsamples = 136\nvalue = [93, 43]"] ;
410 -> 411 ;
412 [label="gini = 0.493\nsamples = 388\nvalue = [217, 171]"] ;
410 -> 412 ;
413 [label="gini = 0.0\nsamples = 11\nvalue = [11, 0]"] ;
409 -> 413 ;
414 [label="state_fips_code_42 <= 0.5\ngini = 0.296\nsamples = 83\nvalue = [68, 15]"] ;
408 -> 414 ;
415 [label="case_month_2021-01 <= 0.5\ngini = 0.258\nsamples = 79\nvalue = [67, 12]"] ;
414 -> 415 ;
416 [label="gini = 0.148\nsamples = 62\nvalue = [57, 5]"] ;
415 -> 416 ;
417 [label="gini = 0.484\nsamples = 17\nvalue = [10, 7]"] ;
415 -> 417 ;
418 [label="case_month_2020-11 <= 0.5\ngini = 0.375\nsamples = 4\nvalue = [1, 3]"] ;
414 -> 418 ;
419 [label="gini = 0.0\nsamples = 3\nvalue = [0, 3]"] ;
418 -> 419 ;
420 [label="gini = 0.0\nsamples = 1\nvalue = [1, 0]"] ;
418 -> 420 ;
421 [label="gini = 0.0\nsamples = 10\nvalue = [0, 10]"] ;
407 -> 421 ;
422 [label="ethnicity_Missing <= 0.5\ngini = 0.476\nsamples = 354\nvalue = [138, 216]"] ;
406 -> 422 ;
423 [label="state_fips_code_12 <= 0.5\ngini = 0.436\nsamples = 262\nvalue = [84, 178]"] ;
422 -> 423 ;
424 [label="case_month_2021-01 <= 0.5\ngini = 0.471\nsamples = 195\nvalue = [74, 121]"] ;
423 -> 424 ;
425 [label="state_fips_code_18 <= 0.5\ngini = 0.447\nsamples = 160\nvalue = [54, 106]"] ;
424 -> 425 ;
426 [label="gini = 0.399\nsamples = 98\nvalue = [27, 71]"] ;
425 -> 426 ;
427 [label="gini = 0.492\nsamples = 62\nvalue = [27, 35]"] ;
425 -> 427 ;
428 [label="state_fips_code_4 <= 0.5\ngini = 0.49\nsamples = 35\nvalue = [20, 15]"] ;
424 -> 428 ;
429 [label="gini = 0.469\nsamples = 32\nvalue = [20, 12]"] ;
428 -> 429 ;
430 [label="gini = 0.0\nsamples = 3\nvalue = [0, 3]"] ;
428 -> 430 ;
431 [label="current_status_Probable Case <= 0.5\ngini = 0.254\nsamples = 67\nvalue = [10, 57]"] ;
423 -> 431 ;
432 [label="case_month_2021-08 <= 0.5\ngini = 0.278\nsamples = 60\nvalue = [10, 50]"] ;
431 -> 432 ;
433 [label="gini = 0.231\nsamples = 45\nvalue = [6, 39]"] ;
432 -> 433 ;
434 [label="gini = 0.391\nsamples = 15\nvalue = [4, 11]"] ;
432 -> 434 ;
435 [label="gini = 0.0\nsamples = 7\nvalue = [0, 7]"] ;
431 -> 435 ;
436 [label="sex_Female <= 0.5\ngini = 0.485\nsamples = 92\nvalue = [54, 38]"] ;
422 -> 436 ;
437 [label="case_month_2021-07 <= 0.5\ngini = 0.313\nsamples = 36\nvalue = [29, 7]"] ;
436 -> 437 ;
438 [label="case_month_2020-06 <= 0.5\ngini = 0.257\nsamples = 33\nvalue = [28, 5]"] ;
437 -> 438 ;
439 [label="gini = 0.219\nsamples = 32\nvalue = [28, 4]"] ;
438 -> 439 ;
440 [label="gini = 0.0\nsamples = 1\nvalue = [0, 1]"] ;
438 -> 440 ;
441 [label="race_Black <= 0.5\ngini = 0.444\nsamples = 3\nvalue = [1, 2]"] ;
437 -> 441 ;
442 [label="gini = 0.0\nsamples = 2\nvalue = [0, 2]"] ;
441 -> 442 ;
443 [label="gini = 0.0\nsamples = 1\nvalue = [1, 0]"] ;
441 -> 443 ;
444 [label="case_month_2021-01 <= 0.5\ngini = 0.494\nsamples = 56\nvalue = [25, 31]"] ;
436 -> 444 ;
445 [label="current_status_Probable Case <= 0.5\ngini = 0.462\nsamples = 47\nvalue = [17, 30]"] ;
444 -> 445 ;
446 [label="gini = 0.485\nsamples = 41\nvalue = [17, 24]"] ;
445 -> 446 ;
447 [label="gini = 0.0\nsamples = 6\nvalue = [0, 6]"] ;
445 -> 447 ;
448 [label="state_fips_code_12 <= 0.5\ngini = 0.198\nsamples = 9\nvalue = [8, 1]"] ;
444 -> 448 ;
449 [label="gini = 0.0\nsamples = 8\nvalue = [8, 0]"] ;
448 -> 449 ;
450 [label="gini = 0.0\nsamples = 1\nvalue = [0, 1]"] ;
448 -> 450 ;
451 [label="state_fips_code_34 <= 0.5\ngini = 0.305\nsamples = 165\nvalue = [31, 134]"] ;
405 -> 451 ;
452 [label="ethnicity_Missing <= 0.5\ngini = 0.263\nsamples = 154\nvalue = [24, 130]"] ;
451 -> 452 ;
453 [label="state_fips_code_24 <= 0.5\ngini = 0.185\nsamples = 126\nvalue = [13, 113]"] ;
452 -> 453 ;
454 [label="state_fips_code_20 <= 0.5\ngini = 0.174\nsamples = 125\nvalue = [12, 113]"] ;
453 -> 454 ;
455 [label="state_fips_code_28 <= 0.5\ngini = 0.162\nsamples = 124\nvalue = [11, 113]"] ;
454 -> 455 ;
456 [label="gini = 0.15\nsamples = 122\nvalue = [10, 112]"] ;
455 -> 456 ;
457 [label="gini = 0.5\nsamples = 2\nvalue = [1, 1]"] ;
455 -> 457 ;
458 [label="gini = 0.0\nsamples = 1\nvalue = [1, 0]"] ;
454 -> 458 ;
459 [label="gini = 0.0\nsamples = 1\nvalue = [1, 0]"] ;
453 -> 459 ;
460 [label="state_fips_code_42 <= 0.5\ngini = 0.477\nsamples = 28\nvalue = [11, 17]"] ;
452 -> 460 ;
461 [label="case_month_2020-03 <= 0.5\ngini = 0.494\nsamples = 18\nvalue = [10, 8]"] ;
460 -> 461 ;
462 [label="state_fips_code_9 <= 0.5\ngini = 0.355\nsamples = 13\nvalue = [10, 3]"] ;
461 -> 462 ;
463 [label="gini = 0.278\nsamples = 12\nvalue = [10, 2]"] ;
462 -> 463 ;
464 [label="gini = 0.0\nsamples = 1\nvalue = [0, 1]"] ;
462 -> 464 ;
465 [label="gini = 0.0\nsamples = 5\nvalue = [0, 5]"] ;
461 -> 465 ;
466 [label="death_prob_sex_age_median <= 0.709\ngini = 0.18\nsamples = 10\nvalue = [1, 9]"] ;
460 -> 466 ;
467 [label="gini = 0.0\nsamples = 5\nvalue = [0, 5]"] ;
466 -> 467 ;
468 [label="race_White <= 0.5\ngini = 0.32\nsamples = 5\nvalue = [1, 4]"] ;
466 -> 468 ;
469 [label="gini = 0.444\nsamples = 3\nvalue = [1, 2]"] ;
468 -> 469 ;
470 [label="gini = 0.0\nsamples = 2\nvalue = [0, 2]"] ;
468 -> 470 ;
471 [label="race_Black <= 0.5\ngini = 0.463\nsamples = 11\nvalue = [7, 4]"] ;
451 -> 471 ;
472 [label="case_month_2020-04 <= 0.5\ngini = 0.42\nsamples = 10\nvalue = [7, 3]"] ;
471 -> 472 ;
473 [label="gini = 0.0\nsamples = 2\nvalue = [2, 0]"] ;
472 -> 473 ;
474 [label="current_status_Laboratory-confirmed case <= 0.5\ngini = 0.469\nsamples = 8\nvalue = [5, 3]"] ;
472 -> 474 ;
475 [label="gini = 0.0\nsamples = 1\nvalue = [0, 1]"] ;
474 -> 475 ;
476 [label="ethnicity_Missing <= 0.5\ngini = 0.408\nsamples = 7\nvalue = [5, 2]"] ;
474 -> 476 ;
477 [label="gini = 0.48\nsamples = 5\nvalue = [3, 2]"] ;
476 -> 477 ;
478 [label="gini = 0.0\nsamples = 2\nvalue = [2, 0]"] ;
476 -> 478 ;
479 [label="gini = 0.0\nsamples = 1\nvalue = [0, 1]"] ;
471 -> 479 ;
480 [label="gini = 0.0\nsamples = 115\nvalue = [0, 115]"] ;
404 -> 480 ;
}