digraph Tree {
node [shape=box, fontname="helvetica"] ;
edge [fontname="helvetica"] ;
0 [label="death_prob_sex_age_median <= 0.448\ngini = 0.376\nsamples = 28000\nvalue = [20985, 7015]"] ;
1 [label="hosp_yn_Yes <= 0.5\ngini = 0.086\nsamples = 19362\nvalue = [18492, 870]"] ;
0 -> 1 [labeldistance=2.5, labelangle=45, headlabel="True"] ;
2 [label="state_fips_code_6 <= 0.5\ngini = 0.033\nsamples = 18377\nvalue = [18070, 307]"] ;
1 -> 2 ;
3 [label="state_fips_code_17 <= 0.5\ngini = 0.026\nsamples = 18308\nvalue = [18070, 238]"] ;
2 -> 3 ;
4 [label="gini = 0.024\nsamples = 18292\nvalue = [18070, 222]"] ;
3 -> 4 ;
5 [label="gini = 0.0\nsamples = 16\nvalue = [0, 16]"] ;
3 -> 5 ;
6 [label="gini = 0.0\nsamples = 69\nvalue = [0, 69]"] ;
2 -> 6 ;
7 [label="age_group_50 to 64 years <= 0.5\ngini = 0.49\nsamples = 985\nvalue = [422, 563]"] ;
1 -> 7 ;
8 [label="state_fips_code_6 <= 0.5\ngini = 0.404\nsamples = 320\nvalue = [230, 90]"] ;
7 -> 8 ;
9 [label="gini = 0.344\nsamples = 295\nvalue = [230, 65]"] ;
8 -> 9 ;
10 [label="gini = 0.0\nsamples = 25\nvalue = [0, 25]"] ;
8 -> 10 ;
11 [label="death_prob_month <= 0.139\ngini = 0.411\nsamples = 665\nvalue = [192, 473]"] ;
7 -> 11 ;
12 [label="gini = 0.4\nsamples = 65\nvalue = [47, 18]"] ;
11 -> 12 ;
13 [label="gini = 0.367\nsamples = 600\nvalue = [145, 455]"] ;
11 -> 13 ;
14 [label="hosp_yn_Yes <= 0.5\ngini = 0.411\nsamples = 8638\nvalue = [2493, 6145]"] ;
0 -> 14 [labeldistance=2.5, labelangle=-45, headlabel="False"] ;
15 [label="death_prob_month <= 0.157\ngini = 0.495\nsamples = 4915\nvalue = [2203, 2712]"] ;
14 -> 15 ;
16 [label="state_fips_code_6 <= 0.5\ngini = 0.321\nsamples = 1052\nvalue = [841, 211]"] ;
15 -> 16 ;
17 [label="gini = 0.297\nsamples = 1027\nvalue = [841, 186]"] ;
16 -> 17 ;
18 [label="gini = 0.0\nsamples = 25\nvalue = [0, 25]"] ;
16 -> 18 ;
19 [label="death_prob_medical_mean <= 0.168\ngini = 0.457\nsamples = 3863\nvalue = [1362, 2501]"] ;
15 -> 19 ;
20 [label="gini = 0.479\nsamples = 1056\nvalue = [635, 421]"] ;
19 -> 20 ;
21 [label="gini = 0.384\nsamples = 2807\nvalue = [727, 2080]"] ;
19 -> 21 ;
22 [label="death_prob_month <= 0.077\ngini = 0.144\nsamples = 3723\nvalue = [290, 3433]"] ;
14 -> 22 ;
23 [label="state_fips_code_27 <= 0.5\ngini = 0.459\nsamples = 157\nvalue = [56, 101]"] ;
22 -> 23 ;
24 [label="gini = 0.44\nsamples = 150\nvalue = [49, 101]"] ;
23 -> 24 ;
25 [label="gini = 0.0\nsamples = 7\nvalue = [7, 0]"] ;
23 -> 25 ;
26 [label="state_fips_code_6 <= 0.5\ngini = 0.123\nsamples = 3566\nvalue = [234, 3332]"] ;
22 -> 26 ;
27 [label="gini = 0.143\nsamples = 3023\nvalue = [234, 2789]"] ;
26 -> 27 ;
28 [label="gini = 0.0\nsamples = 543\nvalue = [0, 543]"] ;
26 -> 28 ;
}